<?xml version="1.0"?>
<opencv_storage>
<stage13>
  <maxWeakCount>5</maxWeakCount>
  <stageThreshold>-8.8023501634597778e-01</stageThreshold>
  <weakClassifiers>
    <_>
      <internalNodes>
        0 -1 72610550 -1.8275671172887087e-03</internalNodes>
      <leafValues>
        -8.9772725105285645e-01 5.0089126825332642e-01</leafValues></_>
    <_>
      <internalNodes>
        0 -1 1294120 8.6149395883694524e-07</internalNodes>
      <leafValues>
        -7.0094704627990723e-01 4.6013098955154419e-01</leafValues></_>
    <_>
      <internalNodes>
        0 -1 38265739 -7.8677751123905182e-02</internalNodes>
      <leafValues>
        6.6062504053115845e-01 -5.2241367101669312e-01</leafValues></_>
    <_>
      <internalNodes>
        0 -1 74987079 1.4508663298329338e-05</internalNodes>
      <leafValues>
        -6.3457465171813965e-01 4.7038552165031433e-01</leafValues></_>
    <_>
      <internalNodes>
        0 -1 5748215 -2.2719595581293106e-02</internalNodes>
      <leafValues>
        7.0093619823455811e-01 -4.6868911385536194e-01</leafValues></_></weakClassifiers></stage13>
</opencv_storage>
