<?xml version="1.0"?>
<opencv_storage>
<cascade>
  <stageType>BOOST</stageType>
  <featureType>HAAR</featureType>
  <height>100</height>
  <width>100</width>
  <stageParams>
    <boostType>GAB</boostType>
    <minHitRate>9.9900001287460327e-01</minHitRate>
    <maxFalseAlarm>5.0000000000000000e-01</maxFalseAlarm>
    <weightTrimRate>9.4999999999999996e-01</weightTrimRate>
    <maxDepth>1</maxDepth>
    <maxWeakCount>100</maxWeakCount></stageParams>
  <featureParams>
    <maxCatCount>0</maxCatCount>
    <featSize>1</featSize>
    <mode>ALL</mode></featureParams>
  <stageNum>20</stageNum>
  <stages>
    <!-- stage 0 -->
    <_>
      <maxWeakCount>2</maxWeakCount>
      <stageThreshold>-1.0099575668573380e-01</stageThreshold>
      <weakClassifiers>
        <_>
          <internalNodes>
            0 -1 34 -4.0199970826506615e-03</internalNodes>
          <leafValues>
            9.2626726627349854e-01 -9.2079210281372070e-01</leafValues></_>
        <_>
          <internalNodes>
            0 -1 7 -2.7901101857423782e-02</internalNodes>
          <leafValues>
            8.1979632377624512e-01 -9.8280715942382812e-01</leafValues></_></weakClassifiers></_>
    <!-- stage 1 -->
    <_>
      <maxWeakCount>5</maxWeakCount>
      <stageThreshold>-4.3436649441719055e-01</stageThreshold>
      <weakClassifiers>
        <_>
          <internalNodes>
            0 -1 76 -3.6389421671628952e-02</internalNodes>
          <leafValues>
            8.8918203115463257e-01 -5.9776538610458374e-01</leafValues></_>
        <_>
          <internalNodes>
            0 -1 65 3.8128308951854706e-03</internalNodes>
          <leafValues>
            -6.4383655786514282e-01 7.9710334539413452e-01</leafValues></_>
        <_>
          <internalNodes>
            0 -1 45 6.8664417085528839e-06</internalNodes>
          <leafValues>
            -7.6293098926544189e-01 6.8873059749603271e-01</leafValues></_>
        <_>
          <internalNodes>
            0 -1 44 7.4806838529184461e-04</internalNodes>
          <leafValues>
            -7.3345440626144409e-01 6.6437637805938721e-01</leafValues></_>
        <_>
          <internalNodes>
            0 -1 61 6.3326209783554077e-05</internalNodes>
          <leafValues>
            -5.4002112150192261e-01 9.0578997135162354e-01</leafValues></_></weakClassifiers></_>
    <!-- stage 2 -->
    <_>
      <maxWeakCount>6</maxWeakCount>
      <stageThreshold>-1.1008512973785400e+00</stageThreshold>
      <weakClassifiers>
        <_>
          <internalNodes>
            0 -1 81 -3.9691510610282421e-03</internalNodes>
          <leafValues>
            8.4864866733551025e-01 -5.2043598890304565e-01</leafValues></_>
        <_>
          <internalNodes>
            0 -1 4 -4.7424808144569397e-01</internalNodes>
          <leafValues>
            7.5817787647247314e-01 -4.8019602894783020e-01</leafValues></_>
        <_>
          <internalNodes>
            0 -1 99 8.1786578220999218e-07</internalNodes>
          <leafValues>
            -5.8956569433212280e-01 6.9143462181091309e-01</leafValues></_>
        <_>
          <internalNodes>
            0 -1 87 -7.7425079325621482e-07</internalNodes>
          <leafValues>
            5.5594104528427124e-01 -7.1307319402694702e-01</leafValues></_>
        <_>
          <internalNodes>
            0 -1 49 -5.3030712297186255e-04</internalNodes>
          <leafValues>
            5.8114171028137207e-01 -6.4526617527008057e-01</leafValues></_>
        <_>
          <internalNodes>
            0 -1 27 8.4642067577078706e-07</internalNodes>
          <leafValues>
            -6.5719312429428101e-01 5.7867145538330078e-01</leafValues></_></weakClassifiers></_>
    <!-- stage 3 -->
    <_>
      <maxWeakCount>5</maxWeakCount>
      <stageThreshold>-1.0207152366638184e+00</stageThreshold>
      <weakClassifiers>
        <_>
          <internalNodes>
            0 -1 78 5.2020745351910591e-03</internalNodes>
          <leafValues>
            -7.1074378490447998e-01 5.9595960378646851e-01</leafValues></_>
        <_>
          <internalNodes>
            0 -1 57 -1.1777342297136784e-04</internalNodes>
          <leafValues>
            5.6690514087677002e-01 -6.8036180734634399e-01</leafValues></_>
        <_>
          <internalNodes>
            0 -1 35 -9.0138398110866547e-02</internalNodes>
          <leafValues>
            5.5569863319396973e-01 -6.3175350427627563e-01</leafValues></_>
        <_>
          <internalNodes>
            0 -1 25 -9.0139862149953842e-03</internalNodes>
          <leafValues>
            4.6213269233703613e-01 -7.6031869649887085e-01</leafValues></_>
        <_>
          <internalNodes>
            0 -1 72 -6.6951522603631020e-03</internalNodes>
          <leafValues>
            5.4001116752624512e-01 -7.0302969217300415e-01</leafValues></_></weakClassifiers></_>
    <!-- stage 4 -->
    <_>
      <maxWeakCount>4</maxWeakCount>
      <stageThreshold>-1.3082648813724518e-01</stageThreshold>
      <weakClassifiers>
        <_>
          <internalNodes>
            0 -1 5 7.7425079325621482e-07</internalNodes>
          <leafValues>
            -6.9672131538391113e-01 5.9432047605514526e-01</leafValues></_>
        <_>
          <internalNodes>
            0 -1 67 2.8881382197141647e-02</internalNodes>
          <leafValues>
            -7.1555441617965698e-01 5.6292116641998291e-01</leafValues></_>
        <_>
          <internalNodes>
            0 -1 2 4.5161489397287369e-03</internalNodes>
          <leafValues>
            -4.4345200061798096e-01 8.1765270233154297e-01</leafValues></_>
        <_>
          <internalNodes>
            0 -1 100 9.4018486151981051e-07</internalNodes>
          <leafValues>
            -7.4303776025772095e-01 4.6379652619361877e-01</leafValues></_></weakClassifiers></_>
    <!-- stage 5 -->
    <_>
      <maxWeakCount>5</maxWeakCount>
      <stageThreshold>-7.7899074554443359e-01</stageThreshold>
      <weakClassifiers>
        <_>
          <internalNodes>
            0 -1 42 -1.0591695085167885e-02</internalNodes>
          <leafValues>
            5.4379564523696899e-01 -9.2592591047286987e-01</leafValues></_>
        <_>
          <internalNodes>
            0 -1 61 4.6964676585048437e-05</internalNodes>
          <leafValues>
            -5.2704083919525146e-01 6.2261062860488892e-01</leafValues></_>
        <_>
          <internalNodes>
            0 -1 58 -6.3423719257116318e-04</internalNodes>
          <leafValues>
            7.5083529949188232e-01 -4.7541901469230652e-01</leafValues></_>
        <_>
          <internalNodes>
            0 -1 31 -1.0597141459584236e-02</internalNodes>
          <leafValues>
            6.0641986131668091e-01 -5.9394991397857666e-01</leafValues></_>
        <_>
          <internalNodes>
            0 -1 64 -7.9276756150647998e-04</internalNodes>
          <leafValues>
            5.9351700544357300e-01 -6.0667628049850464e-01</leafValues></_></weakClassifiers></_>
    <!-- stage 6 -->
    <_>
      <maxWeakCount>6</maxWeakCount>
      <stageThreshold>-1.1449850797653198e+00</stageThreshold>
      <weakClassifiers>
        <_>
          <internalNodes>
            0 -1 30 -3.0181113630533218e-02</internalNodes>
          <leafValues>
            6.0722345113754272e-01 -4.9659863114356995e-01</leafValues></_>
        <_>
          <internalNodes>
            0 -1 55 -5.9564632829278708e-04</internalNodes>
          <leafValues>
            3.8968086242675781e-01 -8.6643087863922119e-01</leafValues></_>
        <_>
          <internalNodes>
            0 -1 80 7.8716827556490898e-03</internalNodes>
          <leafValues>
            -6.1164915561676025e-01 5.4132264852523804e-01</leafValues></_>
        <_>
          <internalNodes>
            0 -1 71 4.7277408884838223e-04</internalNodes>
          <leafValues>
            -4.7997349500656128e-01 6.4049082994461060e-01</leafValues></_>
        <_>
          <internalNodes>
            0 -1 62 1.2023938325000927e-05</internalNodes>
          <leafValues>
            -3.4395349025726318e-01 8.1858021020889282e-01</leafValues></_>
        <_>
          <internalNodes>
            0 -1 36 4.9877809360623360e-03</internalNodes>
          <leafValues>
            4.2969557642936707e-01 -7.5546294450759888e-01</leafValues></_></weakClassifiers></_>
    <!-- stage 7 -->
    <_>
      <maxWeakCount>5</maxWeakCount>
      <stageThreshold>-1.3423652648925781e+00</stageThreshold>
      <weakClassifiers>
        <_>
          <internalNodes>
            0 -1 18 -4.3243872933089733e-03</internalNodes>
          <leafValues>
            5.3068590164184570e-01 -9.3442624807357788e-01</leafValues></_>
        <_>
          <internalNodes>
            0 -1 15 -1.3817906379699707e-01</internalNodes>
          <leafValues>
            7.5994676351547241e-01 -5.0650423765182495e-01</leafValues></_>
        <_>
          <internalNodes>
            0 -1 66 1.1935632210224867e-03</internalNodes>
          <leafValues>
            -4.5865684747695923e-01 6.9947993755340576e-01</leafValues></_>
        <_>
          <internalNodes>
            0 -1 79 1.8885859753936529e-03</internalNodes>
          <leafValues>
            -4.1402611136436462e-01 7.4506306648254395e-01</leafValues></_>
        <_>
          <internalNodes>
            0 -1 94 -5.6246524763992056e-05</internalNodes>
          <leafValues>
            6.8843770027160645e-01 -4.9386399984359741e-01</leafValues></_></weakClassifiers></_>
    <!-- stage 8 -->
    <_>
      <maxWeakCount>7</maxWeakCount>
      <stageThreshold>-1.4116189479827881e+00</stageThreshold>
      <weakClassifiers>
        <_>
          <internalNodes>
            0 -1 28 1.0333640238968655e-04</internalNodes>
          <leafValues>
            5.0644564628601074e-01 -7.8350514173507690e-01</leafValues></_>
        <_>
          <internalNodes>
            0 -1 75 -2.3482223041355610e-03</internalNodes>
          <leafValues>
            6.0234886407852173e-01 -4.7453707456588745e-01</leafValues></_>
        <_>
          <internalNodes>
            0 -1 24 -1.2163292849436402e-03</internalNodes>
          <leafValues>
            6.1140334606170654e-01 -4.3297758698463440e-01</leafValues></_>
        <_>
          <internalNodes>
            0 -1 92 1.0059997439384460e-03</internalNodes>
          <leafValues>
            -2.8288787603378296e-01 9.1685396432876587e-01</leafValues></_>
        <_>
          <internalNodes>
            0 -1 60 4.0485028875991702e-06</internalNodes>
          <leafValues>
            -5.8755439519882202e-01 5.1822012662887573e-01</leafValues></_>
        <_>
          <internalNodes>
            0 -1 50 -7.2085356805473566e-04</internalNodes>
          <leafValues>
            6.4920812845230103e-01 -5.0254118442535400e-01</leafValues></_>
        <_>
          <internalNodes>
            0 -1 41 4.2045302689075470e-03</internalNodes>
          <leafValues>
            3.6243349313735962e-01 -9.2361420392990112e-01</leafValues></_></weakClassifiers></_>
    <!-- stage 9 -->
    <_>
      <maxWeakCount>5</maxWeakCount>
      <stageThreshold>-7.1574324369430542e-01</stageThreshold>
      <weakClassifiers>
        <_>
          <internalNodes>
            0 -1 32 8.5891991830067127e-07</internalNodes>
          <leafValues>
            -5.6849312782287598e-01 6.4943820238113403e-01</leafValues></_>
        <_>
          <internalNodes>
            0 -1 9 1.8589977116789669e-04</internalNodes>
          <leafValues>
            3.8442951440811157e-01 -9.2626523971557617e-01</leafValues></_>
        <_>
          <internalNodes>
            0 -1 85 -1.4808004721999168e-02</internalNodes>
          <leafValues>
            5.5232667922973633e-01 -5.7084912061691284e-01</leafValues></_>
        <_>
          <internalNodes>
            0 -1 68 -3.3956777770072222e-04</internalNodes>
          <leafValues>
            6.2063556909561157e-01 -5.1477962732315063e-01</leafValues></_>
        <_>
          <internalNodes>
            0 -1 88 3.4250384196639061e-03</internalNodes>
          <leafValues>
            -3.9394712448120117e-01 8.6421191692352295e-01</leafValues></_></weakClassifiers></_>
    <!-- stage 10 -->
    <_>
      <maxWeakCount>7</maxWeakCount>
      <stageThreshold>-1.4609560966491699e+00</stageThreshold>
      <weakClassifiers>
        <_>
          <internalNodes>
            0 -1 74 1.1384418030502275e-05</internalNodes>
          <leafValues>
            -6.9158875942230225e-01 5.1816445589065552e-01</leafValues></_>
        <_>
          <internalNodes>
            0 -1 46 -2.8591252863407135e-02</internalNodes>
          <leafValues>
            4.7486972808837891e-01 -6.8144756555557251e-01</leafValues></_>
        <_>
          <internalNodes>
            0 -1 47 -6.1434907838702202e-03</internalNodes>
          <leafValues>
            4.1533115506172180e-01 -8.6299043893814087e-01</leafValues></_>
        <_>
          <internalNodes>
            0 -1 1 8.2784157484638854e-07</internalNodes>
          <leafValues>
            -7.8867441415786743e-01 3.6062583327293396e-01</leafValues></_>
        <_>
          <internalNodes>
            0 -1 56 3.8036829209886491e-05</internalNodes>
          <leafValues>
            -8.9018070697784424e-01 2.8425195813179016e-01</leafValues></_>
        <_>
          <internalNodes>
            0 -1 26 5.7736207963898778e-04</internalNodes>
          <leafValues>
            3.7159413099288940e-01 -7.0416390895843506e-01</leafValues></_>
        <_>
          <internalNodes>
            0 -1 8 -8.2637114928729716e-07</internalNodes>
          <leafValues>
            6.7954444885253906e-01 -5.0441771745681763e-01</leafValues></_></weakClassifiers></_>
    <!-- stage 11 -->
    <_>
      <maxWeakCount>7</maxWeakCount>
      <stageThreshold>-8.6589086055755615e-01</stageThreshold>
      <weakClassifiers>
        <_>
          <internalNodes>
            0 -1 19 -1.9379131495952606e-02</internalNodes>
          <leafValues>
            6.3594472408294678e-01 -5.0495052337646484e-01</leafValues></_>
        <_>
          <internalNodes>
            0 -1 14 5.5228183045983315e-03</internalNodes>
          <leafValues>
            -5.1966243982315063e-01 5.6782478094100952e-01</leafValues></_>
        <_>
          <internalNodes>
            0 -1 12 1.3137996575096622e-05</internalNodes>
          <leafValues>
            -7.1950632333755493e-01 4.0777093172073364e-01</leafValues></_>
        <_>
          <internalNodes>
            0 -1 84 8.7155854089360218e-07</internalNodes>
          <leafValues>
            -5.5180907249450684e-01 6.5913629531860352e-01</leafValues></_>
        <_>
          <internalNodes>
            0 -1 16 4.2779417708516121e-04</internalNodes>
          <leafValues>
            4.1970443725585938e-01 -7.2725945711135864e-01</leafValues></_>
        <_>
          <internalNodes>
            0 -1 48 -2.9940594686195254e-04</internalNodes>
          <leafValues>
            6.6999286413192749e-01 -5.2615028619766235e-01</leafValues></_>
        <_>
          <internalNodes>
            0 -1 52 2.3380482161883265e-05</internalNodes>
          <leafValues>
            4.3536731600761414e-01 -7.6194918155670166e-01</leafValues></_></weakClassifiers></_>
    <!-- stage 12 -->
    <_>
      <maxWeakCount>4</maxWeakCount>
      <stageThreshold>-3.3475258946418762e-01</stageThreshold>
      <weakClassifiers>
        <_>
          <internalNodes>
            0 -1 37 5.5030127987265587e-03</internalNodes>
          <leafValues>
            4.7442680597305298e-01 -8.5882353782653809e-01</leafValues></_>
        <_>
          <internalNodes>
            0 -1 23 8.5764196455784258e-07</internalNodes>
          <leafValues>
            -6.0591644048690796e-01 4.5958986878395081e-01</leafValues></_>
        <_>
          <internalNodes>
            0 -1 70 -6.1912008095532656e-04</internalNodes>
          <leafValues>
            -7.9269462823867798e-01 4.4664201140403748e-01</leafValues></_>
        <_>
          <internalNodes>
            0 -1 93 9.2316244263201952e-04</internalNodes>
          <leafValues>
            -3.8216096162796021e-01 8.6348539590835571e-01</leafValues></_></weakClassifiers></_>
    <!-- stage 13 -->
    <_>
      <maxWeakCount>5</maxWeakCount>
      <stageThreshold>-8.8023501634597778e-01</stageThreshold>
      <weakClassifiers>
        <_>
          <internalNodes>
            0 -1 90 -1.8275671172887087e-03</internalNodes>
          <leafValues>
            -8.9772725105285645e-01 5.0089126825332642e-01</leafValues></_>
        <_>
          <internalNodes>
            0 -1 3 8.6149395883694524e-07</internalNodes>
          <leafValues>
            -7.0094704627990723e-01 4.6013098955154419e-01</leafValues></_>
        <_>
          <internalNodes>
            0 -1 29 -7.8677751123905182e-02</internalNodes>
          <leafValues>
            6.6062504053115845e-01 -5.2241367101669312e-01</leafValues></_>
        <_>
          <internalNodes>
            0 -1 95 1.4508663298329338e-05</internalNodes>
          <leafValues>
            -6.3457465171813965e-01 4.7038552165031433e-01</leafValues></_>
        <_>
          <internalNodes>
            0 -1 6 -2.2719595581293106e-02</internalNodes>
          <leafValues>
            7.0093619823455811e-01 -4.6868911385536194e-01</leafValues></_></weakClassifiers></_>
    <!-- stage 14 -->
    <_>
      <maxWeakCount>4</maxWeakCount>
      <stageThreshold>-1.3593180179595947e+00</stageThreshold>
      <weakClassifiers>
        <_>
          <internalNodes>
            0 -1 33 -5.9664784930646420e-04</internalNodes>
          <leafValues>
            -7.8082191944122314e-01 5.6756758689880371e-01</leafValues></_>
        <_>
          <internalNodes>
            0 -1 53 2.4440207198495045e-05</internalNodes>
          <leafValues>
            -6.7308455705642700e-01 4.6591198444366455e-01</leafValues></_>
        <_>
          <internalNodes>
            0 -1 13 4.1333548724651337e-02</internalNodes>
          <leafValues>
            -8.5170841217041016e-01 3.6772412061691284e-01</leafValues></_>
        <_>
          <internalNodes>
            0 -1 73 5.2700517699122429e-04</internalNodes>
          <leafValues>
            -4.0209254622459412e-01 8.9167273044586182e-01</leafValues></_></weakClassifiers></_>
    <!-- stage 15 -->
    <_>
      <maxWeakCount>7</maxWeakCount>
      <stageThreshold>-1.0064166784286499e+00</stageThreshold>
      <weakClassifiers>
        <_>
          <internalNodes>
            0 -1 39 1.3134531036484987e-04</internalNodes>
          <leafValues>
            -8.1065088510513306e-01 4.5774647593498230e-01</leafValues></_>
        <_>
          <internalNodes>
            0 -1 38 4.3545296648517251e-06</internalNodes>
          <leafValues>
            -7.0374965667724609e-01 4.0694615244865417e-01</leafValues></_>
        <_>
          <internalNodes>
            0 -1 91 2.0695803686976433e-03</internalNodes>
          <leafValues>
            -4.5362210273742676e-01 7.7878749370574951e-01</leafValues></_>
        <_>
          <internalNodes>
            0 -1 10 -3.5487818531692028e-03</internalNodes>
          <leafValues>
            8.0231755971908569e-01 -3.3877396583557129e-01</leafValues></_>
        <_>
          <internalNodes>
            0 -1 54 3.5629327612696216e-05</internalNodes>
          <leafValues>
            4.1486430168151855e-01 -6.9841551780700684e-01</leafValues></_>
        <_>
          <internalNodes>
            0 -1 40 1.1437546461820602e-02</internalNodes>
          <leafValues>
            3.5971441864967346e-01 -7.6203674077987671e-01</leafValues></_>
        <_>
          <internalNodes>
            0 -1 101 6.2757299019722268e-06</internalNodes>
          <leafValues>
            -7.6675021648406982e-01 3.8173893094062805e-01</leafValues></_></weakClassifiers></_>
    <!-- stage 16 -->
    <_>
      <maxWeakCount>6</maxWeakCount>
      <stageThreshold>-4.3581119179725647e-01</stageThreshold>
      <weakClassifiers>
        <_>
          <internalNodes>
            0 -1 22 -2.6156264357268810e-03</internalNodes>
          <leafValues>
            5.3996104001998901e-01 -6.8750000000000000e-01</leafValues></_>
        <_>
          <internalNodes>
            0 -1 82 4.5987492194399238e-04</internalNodes>
          <leafValues>
            -3.2583293318748474e-01 8.7580096721649170e-01</leafValues></_>
        <_>
          <internalNodes>
            0 -1 63 8.8621970917301951e-07</internalNodes>
          <leafValues>
            -5.1624965667724609e-01 5.9192126989364624e-01</leafValues></_>
        <_>
          <internalNodes>
            0 -1 77 -1.0773589019663632e-04</internalNodes>
          <leafValues>
            5.8327001333236694e-01 -4.9469831585884094e-01</leafValues></_>
        <_>
          <internalNodes>
            0 -1 96 8.8820187374949455e-04</internalNodes>
          <leafValues>
            -2.9543650150299072e-01 8.7541961669921875e-01</leafValues></_>
        <_>
          <internalNodes>
            0 -1 59 -4.1465827962383628e-04</internalNodes>
          <leafValues>
            8.0593788623809814e-01 -2.6473271846771240e-01</leafValues></_></weakClassifiers></_>
    <!-- stage 17 -->
    <_>
      <maxWeakCount>6</maxWeakCount>
      <stageThreshold>-4.0148389339447021e-01</stageThreshold>
      <weakClassifiers>
        <_>
          <internalNodes>
            0 -1 43 8.1708617472031619e-07</internalNodes>
          <leafValues>
            -5.3521126508712769e-01 6.0706400871276855e-01</leafValues></_>
        <_>
          <internalNodes>
            0 -1 11 3.6156475289317314e-06</internalNodes>
          <leafValues>
            -5.2752417325973511e-01 5.8788406848907471e-01</leafValues></_>
        <_>
          <internalNodes>
            0 -1 69 2.7454443625174463e-04</internalNodes>
          <leafValues>
            4.1644391417503357e-01 -8.2432204484939575e-01</leafValues></_>
        <_>
          <internalNodes>
            0 -1 86 2.6690540835261345e-03</internalNodes>
          <leafValues>
            -8.8948959112167358e-01 3.2628875970840454e-01</leafValues></_>
        <_>
          <internalNodes>
            0 -1 89 2.4350332096219063e-03</internalNodes>
          <leafValues>
            -4.6406286954879761e-01 6.9667333364486694e-01</leafValues></_>
        <_>
          <internalNodes>
            0 -1 97 9.2774814675067319e-07</internalNodes>
          <leafValues>
            -5.7929366827011108e-01 5.7083094120025635e-01</leafValues></_></weakClassifiers></_>
    <!-- stage 18 -->
    <_>
      <maxWeakCount>5</maxWeakCount>
      <stageThreshold>-1.0916585922241211e+00</stageThreshold>
      <weakClassifiers>
        <_>
          <internalNodes>
            0 -1 51 -1.8445064779371023e-03</internalNodes>
          <leafValues>
            -7.5438594818115234e-01 5.7956779003143311e-01</leafValues></_>
        <_>
          <internalNodes>
            0 -1 20 8.6132706655916991e-07</internalNodes>
          <leafValues>
            -5.5956202745437622e-01 6.3478541374206543e-01</leafValues></_>
        <_>
          <internalNodes>
            0 -1 21 4.7019383055157959e-04</internalNodes>
          <leafValues>
            3.6918950080871582e-01 -8.5437703132629395e-01</leafValues></_>
        <_>
          <internalNodes>
            0 -1 83 -3.1319218578573782e-06</internalNodes>
          <leafValues>
            6.0857635736465454e-01 -6.0108047723770142e-01</leafValues></_>
        <_>
          <internalNodes>
            0 -1 98 2.5540199130773544e-02</internalNodes>
          <leafValues>
            3.4379321336746216e-01 -9.2597818374633789e-01</leafValues></_></weakClassifiers></_>
    <!-- stage 19 -->
    <_>
      <maxWeakCount>2</maxWeakCount>
      <stageThreshold>-1.5731124579906464e-01</stageThreshold>
      <weakClassifiers>
        <_>
          <internalNodes>
            0 -1 17 -1.6432013362646103e-02</internalNodes>
          <leafValues>
            8.3547556400299072e-01 -5.8045977354049683e-01</leafValues></_>
        <_>
          <internalNodes>
            0 -1 0 2.6754074497148395e-04</internalNodes>
          <leafValues>
            4.5057943463325500e-01 -9.9278682470321655e-01</leafValues></_></weakClassifiers></_></stages>
  <features>
    <_>
      <rects>
        <_>
          0 0 1 28 -1.</_>
        <_>
          0 14 1 14 2.</_></rects>
      <tilted>0</tilted></_>
    <_>
      <rects>
        <_>
          0 7 8 4 -1.</_>
        <_>
          0 9 8 2 2.</_></rects>
      <tilted>0</tilted></_>
    <_>
      <rects>
        <_>
          0 35 15 28 -1.</_>
        <_>
          5 35 5 28 3.</_></rects>
      <tilted>0</tilted></_>
    <_>
      <rects>
        <_>
          1 1 15 2 -1.</_>
        <_>
          1 2 15 1 2.</_></rects>
      <tilted>0</tilted></_>
    <_>
      <rects>
        <_>
          1 6 72 87 -1.</_>
        <_>
          25 35 24 29 9.</_></rects>
      <tilted>0</tilted></_>
    <_>
      <rects>
        <_>
          4 5 5 4 -1.</_>
        <_>
          4 7 5 2 2.</_></rects>
      <tilted>0</tilted></_>
    <_>
      <rects>
        <_>
          4 36 24 30 -1.</_>
        <_>
          16 36 12 30 2.</_></rects>
      <tilted>0</tilted></_>
    <_>
      <rects>
        <_>
          4 39 76 20 -1.</_>
        <_>
          23 39 38 20 2.</_></rects>
      <tilted>0</tilted></_>
    <_>
      <rects>
        <_>
          4 86 2 2 -1.</_>
        <_>
          4 87 2 1 2.</_></rects>
      <tilted>0</tilted></_>
    <_>
      <rects>
        <_>
          5 0 1 24 -1.</_>
        <_>
          5 12 1 12 2.</_></rects>
      <tilted>0</tilted></_>
    <_>
      <rects>
        <_>
          11 32 15 39 -1.</_>
        <_>
          16 32 5 39 3.</_></rects>
      <tilted>0</tilted></_>
    <_>
      <rects>
        <_>
          12 3 11 2 -1.</_>
        <_>
          12 4 11 1 2.</_></rects>
      <tilted>0</tilted></_>
    <_>
      <rects>
        <_>
          16 1 54 9 -1.</_>
        <_>
          34 4 18 3 9.</_></rects>
      <tilted>0</tilted></_>
    <_>
      <rects>
        <_>
          18 37 82 28 -1.</_>
        <_>
          59 37 41 28 2.</_></rects>
      <tilted>0</tilted></_>
    <_>
      <rects>
        <_>
          21 61 76 10 -1.</_>
        <_>
          40 61 38 10 2.</_></rects>
      <tilted>0</tilted></_>
    <_>
      <rects>
        <_>
          22 7 46 52 -1.</_>
        <_>
          22 33 46 26 2.</_></rects>
      <tilted>0</tilted></_>
    <_>
      <rects>
        <_>
          22 96 54 1 -1.</_>
        <_>
          40 96 18 1 3.</_></rects>
      <tilted>0</tilted></_>
    <_>
      <rects>
        <_>
          23 10 8 48 -1.</_>
        <_>
          23 34 8 24 2.</_></rects>
      <tilted>0</tilted></_>
    <_>
      <rects>
        <_>
          23 42 42 7 -1.</_>
        <_>
          37 42 14 7 3.</_></rects>
      <tilted>0</tilted></_>
    <_>
      <rects>
        <_>
          24 2 7 60 -1.</_>
        <_>
          24 32 7 30 2.</_></rects>
      <tilted>0</tilted></_>
    <_>
      <rects>
        <_>
          25 15 9 2 -1.</_>
        <_>
          25 16 9 1 2.</_></rects>
      <tilted>0</tilted></_>
    <_>
      <rects>
        <_>
          26 1 71 4 -1.</_>
        <_>
          26 3 71 2 2.</_></rects>
      <tilted>0</tilted></_>
    <_>
      <rects>
        <_>
          27 1 69 68 -1.</_>
        <_>
          27 18 69 34 2.</_></rects>
      <tilted>0</tilted></_>
    <_>
      <rects>
        <_>
          29 2 7 2 -1.</_>
        <_>
          29 3 7 1 2.</_></rects>
      <tilted>0</tilted></_>
    <_>
      <rects>
        <_>
          29 50 10 11 -1.</_>
        <_>
          29 50 5 11 2.</_></rects>
      <tilted>1</tilted></_>
    <_>
      <rects>
        <_>
          30 39 27 12 -1.</_>
        <_>
          39 43 9 4 9.</_></rects>
      <tilted>0</tilted></_>
    <_>
      <rects>
        <_>
          30 96 56 4 -1.</_>
        <_>
          44 96 28 4 2.</_></rects>
      <tilted>0</tilted></_>
    <_>
      <rects>
        <_>
          31 9 8 2 -1.</_>
        <_>
          31 10 8 1 2.</_></rects>
      <tilted>0</tilted></_>
    <_>
      <rects>
        <_>
          32 2 22 8 -1.</_>
        <_>
          32 4 22 4 2.</_></rects>
      <tilted>0</tilted></_>
    <_>
      <rects>
        <_>
          32 9 36 46 -1.</_>
        <_>
          32 32 36 23 2.</_></rects>
      <tilted>0</tilted></_>
    <_>
      <rects>
        <_>
          32 20 48 9 -1.</_>
        <_>
          44 32 24 9 2.</_></rects>
      <tilted>1</tilted></_>
    <_>
      <rects>
        <_>
          33 25 21 32 -1.</_>
        <_>
          25 33 21 16 2.</_></rects>
      <tilted>1</tilted></_>
    <_>
      <rects>
        <_>
          34 11 13 2 -1.</_>
        <_>
          34 12 13 1 2.</_></rects>
      <tilted>0</tilted></_>
    <_>
      <rects>
        <_>
          35 2 16 6 -1.</_>
        <_>
          43 2 8 6 2.</_></rects>
      <tilted>0</tilted></_>
    <_>
      <rects>
        <_>
          36 28 21 6 -1.</_>
        <_>
          43 35 7 6 3.</_></rects>
      <tilted>1</tilted></_>
    <_>
      <rects>
        <_>
          37 0 52 33 -1.</_>
        <_>
          50 13 26 33 2.</_></rects>
      <tilted>1</tilted></_>
    <_>
      <rects>
        <_>
          38 44 42 15 -1.</_>
        <_>
          52 49 14 5 9.</_></rects>
      <tilted>0</tilted></_>
    <_>
      <rects>
        <_>
          39 1 30 68 -1.</_>
        <_>
          39 18 30 34 2.</_></rects>
      <tilted>0</tilted></_>
    <_>
      <rects>
        <_>
          39 6 26 2 -1.</_>
        <_>
          39 7 26 1 2.</_></rects>
      <tilted>0</tilted></_>
    <_>
      <rects>
        <_>
          39 39 7 22 -1.</_>
        <_>
          39 50 7 11 2.</_></rects>
      <tilted>0</tilted></_>
    <_>
      <rects>
        <_>
          40 0 58 72 -1.</_>
        <_>
          40 18 58 36 2.</_></rects>
      <tilted>0</tilted></_>
    <_>
      <rects>
        <_>
          40 3 54 18 -1.</_>
        <_>
          40 12 54 9 2.</_></rects>
      <tilted>0</tilted></_>
    <_>
      <rects>
        <_>
          40 32 28 17 -1.</_>
        <_>
          40 32 14 17 2.</_></rects>
      <tilted>1</tilted></_>
    <_>
      <rects>
        <_>
          41 11 21 2 -1.</_>
        <_>
          41 12 21 1 2.</_></rects>
      <tilted>0</tilted></_>
    <_>
      <rects>
        <_>
          43 44 14 2 -1.</_>
        <_>
          50 44 7 2 2.</_></rects>
      <tilted>0</tilted></_>
    <_>
      <rects>
        <_>
          44 1 7 4 -1.</_>
        <_>
          44 3 7 2 2.</_></rects>
      <tilted>0</tilted></_>
    <_>
      <rects>
        <_>
          44 8 28 35 -1.</_>
        <_>
          51 15 14 35 2.</_></rects>
      <tilted>1</tilted></_>
    <_>
      <rects>
        <_>
          44 30 22 48 -1.</_>
        <_>
          44 46 22 16 3.</_></rects>
      <tilted>0</tilted></_>
    <_>
      <rects>
        <_>
          44 40 6 9 -1.</_>
        <_>
          46 40 2 9 3.</_></rects>
      <tilted>0</tilted></_>
    <_>
      <rects>
        <_>
          44 45 14 6 -1.</_>
        <_>
          44 45 7 3 2.</_>
        <_>
          51 48 7 3 2.</_></rects>
      <tilted>0</tilted></_>
    <_>
      <rects>
        <_>
          44 60 9 9 -1.</_>
        <_>
          44 63 9 3 3.</_></rects>
      <tilted>0</tilted></_>
    <_>
      <rects>
        <_>
          45 0 15 10 -1.</_>
        <_>
          45 0 15 5 2.</_></rects>
      <tilted>1</tilted></_>
    <_>
      <rects>
        <_>
          45 3 1 15 -1.</_>
        <_>
          45 8 1 5 3.</_></rects>
      <tilted>0</tilted></_>
    <_>
      <rects>
        <_>
          45 5 18 4 -1.</_>
        <_>
          45 7 18 2 2.</_></rects>
      <tilted>0</tilted></_>
    <_>
      <rects>
        <_>
          46 9 10 9 -1.</_>
        <_>
          46 12 10 3 3.</_></rects>
      <tilted>0</tilted></_>
    <_>
      <rects>
        <_>
          46 39 8 6 -1.</_>
        <_>
          46 39 4 6 2.</_></rects>
      <tilted>1</tilted></_>
    <_>
      <rects>
        <_>
          47 39 15 6 -1.</_>
        <_>
          52 44 5 6 3.</_></rects>
      <tilted>1</tilted></_>
    <_>
      <rects>
        <_>
          47 46 4 1 -1.</_>
        <_>
          47 46 2 1 2.</_></rects>
      <tilted>1</tilted></_>
    <_>
      <rects>
        <_>
          47 51 2 20 -1.</_>
        <_>
          47 56 2 10 2.</_></rects>
      <tilted>0</tilted></_>
    <_>
      <rects>
        <_>
          47 62 5 6 -1.</_>
        <_>
          47 64 5 2 3.</_></rects>
      <tilted>0</tilted></_>
    <_>
      <rects>
        <_>
          48 3 21 2 -1.</_>
        <_>
          48 4 21 1 2.</_></rects>
      <tilted>0</tilted></_>
    <_>
      <rects>
        <_>
          48 47 4 4 -1.</_>
        <_>
          48 48 4 2 2.</_></rects>
      <tilted>0</tilted></_>
    <_>
      <rects>
        <_>
          48 52 2 2 -1.</_>
        <_>
          48 52 1 1 2.</_>
        <_>
          49 53 1 1 2.</_></rects>
      <tilted>0</tilted></_>
    <_>
      <rects>
        <_>
          49 18 10 2 -1.</_>
        <_>
          49 19 10 1 2.</_></rects>
      <tilted>0</tilted></_>
    <_>
      <rects>
        <_>
          49 40 5 8 -1.</_>
        <_>
          47 42 5 4 2.</_></rects>
      <tilted>1</tilted></_>
    <_>
      <rects>
        <_>
          49 53 10 20 -1.</_>
        <_>
          49 63 10 10 2.</_></rects>
      <tilted>0</tilted></_>
    <_>
      <rects>
        <_>
          49 58 2 14 -1.</_>
        <_>
          49 65 2 7 2.</_></rects>
      <tilted>0</tilted></_>
    <_>
      <rects>
        <_>
          50 0 22 29 -1.</_>
        <_>
          50 0 11 29 2.</_></rects>
      <tilted>1</tilted></_>
    <_>
      <rects>
        <_>
          50 38 10 8 -1.</_>
        <_>
          50 38 5 4 2.</_>
        <_>
          55 42 5 4 2.</_></rects>
      <tilted>0</tilted></_>
    <_>
      <rects>
        <_>
          51 0 2 28 -1.</_>
        <_>
          51 14 2 14 2.</_></rects>
      <tilted>0</tilted></_>
    <_>
      <rects>
        <_>
          51 0 12 6 -1.</_>
        <_>
          51 0 12 3 2.</_></rects>
      <tilted>1</tilted></_>
    <_>
      <rects>
        <_>
          51 35 10 6 -1.</_>
        <_>
          49 37 10 2 3.</_></rects>
      <tilted>1</tilted></_>
    <_>
      <rects>
        <_>
          51 38 10 33 -1.</_>
        <_>
          51 49 10 11 3.</_></rects>
      <tilted>0</tilted></_>
    <_>
      <rects>
        <_>
          51 66 5 6 -1.</_>
        <_>
          51 68 5 2 3.</_></rects>
      <tilted>0</tilted></_>
    <_>
      <rects>
        <_>
          53 5 5 6 -1.</_>
        <_>
          53 8 5 3 2.</_></rects>
      <tilted>0</tilted></_>
    <_>
      <rects>
        <_>
          54 41 20 3 -1.</_>
        <_>
          59 46 10 3 2.</_></rects>
      <tilted>1</tilted></_>
    <_>
      <rects>
        <_>
          55 6 24 41 -1.</_>
        <_>
          63 14 8 41 3.</_></rects>
      <tilted>1</tilted></_>
    <_>
      <rects>
        <_>
          55 44 6 4 -1.</_>
        <_>
          58 44 3 4 2.</_></rects>
      <tilted>0</tilted></_>
    <_>
      <rects>
        <_>
          58 25 20 12 -1.</_>
        <_>
          58 25 20 6 2.</_></rects>
      <tilted>1</tilted></_>
    <_>
      <rects>
        <_>
          58 34 6 21 -1.</_>
        <_>
          60 36 2 21 3.</_></rects>
      <tilted>1</tilted></_>
    <_>
      <rects>
        <_>
          59 11 25 18 -1.</_>
        <_>
          53 17 25 6 3.</_></rects>
      <tilted>1</tilted></_>
    <_>
      <rects>
        <_>
          60 39 16 14 -1.</_>
        <_>
          64 43 8 14 2.</_></rects>
      <tilted>1</tilted></_>
    <_>
      <rects>
        <_>
          61 26 2 12 -1.</_>
        <_>
          61 30 2 4 3.</_></rects>
      <tilted>0</tilted></_>
    <_>
      <rects>
        <_>
          62 10 28 4 -1.</_>
        <_>
          62 11 28 2 2.</_></rects>
      <tilted>0</tilted></_>
    <_>
      <rects>
        <_>
          62 15 16 2 -1.</_>
        <_>
          62 16 16 1 2.</_></rects>
      <tilted>0</tilted></_>
    <_>
      <rects>
        <_>
          63 43 18 15 -1.</_>
        <_>
          63 43 9 15 2.</_></rects>
      <tilted>1</tilted></_>
    <_>
      <rects>
        <_>
          67 26 17 30 -1.</_>
        <_>
          67 26 17 15 2.</_></rects>
      <tilted>1</tilted></_>
    <_>
      <rects>
        <_>
          68 5 2 11 -1.</_>
        <_>
          69 5 1 11 2.</_></rects>
      <tilted>0</tilted></_>
    <_>
      <rects>
        <_>
          69 41 27 15 -1.</_>
        <_>
          69 46 27 5 3.</_></rects>
      <tilted>0</tilted></_>
    <_>
      <rects>
        <_>
          71 44 25 15 -1.</_>
        <_>
          71 49 25 5 3.</_></rects>
      <tilted>0</tilted></_>
    <_>
      <rects>
        <_>
          72 29 7 36 -1.</_>
        <_>
          72 29 7 18 2.</_></rects>
      <tilted>1</tilted></_>
    <_>
      <rects>
        <_>
          72 49 9 23 -1.</_>
        <_>
          75 52 3 23 3.</_></rects>
      <tilted>1</tilted></_>
    <_>
      <rects>
        <_>
          74 27 6 12 -1.</_>
        <_>
          76 29 2 12 3.</_></rects>
      <tilted>1</tilted></_>
    <_>
      <rects>
        <_>
          74 33 6 8 -1.</_>
        <_>
          76 35 2 8 3.</_></rects>
      <tilted>1</tilted></_>
    <_>
      <rects>
        <_>
          76 44 4 5 -1.</_>
        <_>
          78 44 2 5 2.</_></rects>
      <tilted>0</tilted></_>
    <_>
      <rects>
        <_>
          77 4 6 6 -1.</_>
        <_>
          77 7 6 3 2.</_></rects>
      <tilted>0</tilted></_>
    <_>
      <rects>
        <_>
          77 48 22 8 -1.</_>
        <_>
          77 50 22 4 2.</_></rects>
      <tilted>0</tilted></_>
    <_>
      <rects>
        <_>
          78 1 7 2 -1.</_>
        <_>
          78 2 7 1 2.</_></rects>
      <tilted>0</tilted></_>
    <_>
      <rects>
        <_>
          89 50 11 44 -1.</_>
        <_>
          89 72 11 22 2.</_></rects>
      <tilted>0</tilted></_>
    <_>
      <rects>
        <_>
          90 11 8 2 -1.</_>
        <_>
          90 12 8 1 2.</_></rects>
      <tilted>0</tilted></_>
    <_>
      <rects>
        <_>
          91 2 8 4 -1.</_>
        <_>
          91 4 8 2 2.</_></rects>
      <tilted>0</tilted></_>
    <_>
      <rects>
        <_>
          99 8 1 12 -1.</_>
        <_>
          99 14 1 6 2.</_></rects>
      <tilted>0</tilted></_></features></cascade>
</opencv_storage>
